{
  "input_nodes": 5,
  "hidden_nodes": 8,
  "output_nodes": 2,
  "weights_ih": {
    "rows": 8,
    "cols": 5,
    "data": [
      [
        0.5212795902008338,
        0.49878555443368944,
        -0.24392417167411126,
        -0.0900815642302848,
        0.6882711958424174
      ],
      [
        0.09462544947795279,
        0.39495347112550405,
        -0.9062789485316216,
        0.9723261027597028,
        0.27907021546335864
      ],
      [
        -0.8408629190415486,
        -0.2917159511449512,
        0.6151244015773583,
        -0.6929651020553664,
        0.1978787040749812
      ],
      [
        0.40124298377231593,
        -0.39324849375841653,
        0.4465056436578547,
        0.9494515280343396,
        -0.9566313057723674
      ],
      [
        0.7140906383678676,
        0.23077971180792467,
        -0.18036496058806212,
        0.8683137989529465,
        -0.06809735825687735
      ],
      [
        -0.28810551974892284,
        0.8234223771805769,
        0.9550719934237808,
        0.24931133976243647,
        0.050545904490157056
      ],
      [
        0.8863062643333972,
        -0.35429916192583877,
        -0.022063289095804794,
        0.6527199682583027,
        -0.5166677926896465
      ],
      [
        -0.07293806540845171,
        0.322714312326871,
        0.37701080083134986,
        0.9900822612206239,
        0.2716474445532371
      ]
    ]
  },
  "weights_ho": {
    "rows": 2,
    "cols": 8,
    "data": [
      [
        0.7398871209403097,
        0.9154514161508294,
        -0.2693318359701047,
        -0.8592823347115823,
        0.9699431989081262,
        0.8336908859856349,
        0.5596247516619163,
        -0.09278012330873833
      ],
      [
        -0.44381772158509714,
        0.5283899271396058,
        0.9955049715873998,
        0.42782700998174406,
        -0.09536546990953232,
        0.33484779282368216,
        -0.7728264890494714,
        -0.03184561790682272
      ]
    ]
  },
  "bias_h": {
    "rows": 8,
    "cols": 1,
    "data": [
      [
        -0.2253491823810312
      ],
      [
        -0.5519992992498763
      ],
      [
        0.5096784120784468
      ],
      [
        0.21675739819261697
      ],
      [
        -0.4910621874568416
      ],
      [
        0.659052386369487
      ],
      [
        -0.7075010074851065
      ],
      [
        0.3331781286347466
      ]
    ]
  },
  "bias_o": {
    "rows": 2,
    "cols": 1,
    "data": [
      [
        -0.1717560534937399
      ],
      [
        0.7914865370021213
      ]
    ]
  },
  "learning_rate": 0.1,
  "activation_function": {}
}
